digraph Tree {
0 [label="nr.employed <= 5087.6504\ngini = 0.199926417695\nsamples = 41188", shape="box"] ;
1 [label="duration <= 172.5000\ngini = 0.493950886349\nsamples = 4964", shape="box"] ;
0 -> 1 ;
2 [label="is_poutcome_success? <= 0.5000\ngini = 0.286734373991\nsamples = 1891", shape="box"] ;
1 -> 2 ;
3 [label="gini = 0.2284\nsamples = 1605\nvalue = [ 1394.   211.]", shape="box"] ;
2 -> 3 ;
4 [label="gini = 0.4835\nsamples = 286\nvalue = [ 169.  117.]", shape="box"] ;
2 -> 4 ;
5 [label="pdays <= 16.5000\ngini = 0.474864743143\nsamples = 3073", shape="box"] ;
1 -> 5 ;
6 [label="gini = 0.2994\nsamples = 900\nvalue = [ 165.  735.]", shape="box"] ;
5 -> 6 ;
7 [label="gini = 0.4985\nsamples = 2173\nvalue = [ 1027.  1146.]", shape="box"] ;
5 -> 7 ;
8 [label="duration <= 606.5000\ngini = 0.125212847619\nsamples = 36224", shape="box"] ;
0 -> 8 ;
9 [label="cons.conf.idx <= -46.6500\ngini = 0.0608571385853\nsamples = 33232", shape="box"] ;
8 -> 9 ;
10 [label="gini = 0.2928\nsamples = 2476\nvalue = [ 2035.   441.]", shape="box"] ;
9 -> 10 ;
11 [label="gini = 0.0384\nsamples = 30756\nvalue = [ 30153.    603.]", shape="box"] ;
9 -> 11 ;
12 [label="duration <= 835.5000\ngini = 0.497345640067\nsamples = 2992", shape="box"] ;
8 -> 12 ;
13 [label="gini = 0.4638\nsamples = 1601\nvalue = [ 1016.   585.]", shape="box"] ;
12 -> 13 ;
14 [label="gini = 0.4883\nsamples = 1391\nvalue = [ 589.  802.]", shape="box"] ;
12 -> 14 ;
}